<?xml version="1.0"?>
<opencv_storage>
<opencv_ml_ann_mlp>
  <format>3</format>
  <layer_sizes>
    3 10 4</layer_sizes>
  <activation_function>SIGMOID_SYM</activation_function>
  <f_param1>1.</f_param1>
  <f_param2>1.</f_param2>
  <min_val>-9.4999999999999996e-01</min_val>
  <max_val>9.4999999999999996e-01</max_val>
  <min_val1>-9.7999999999999998e-01</min_val1>
  <max_val1>9.7999999999999998e-01</max_val1>
  <training_params>
    <train_method>BACKPROP</train_method>
    <dw_scale>1.0000000000000000e-03</dw_scale>
    <moment_scale>1.0000000000000001e-01</moment_scale>
    <term_criteria>
      <epsilon>1.0000000000000000e-02</epsilon>
      <iterations>1000</iterations></term_criteria></training_params>
  <input_scale>
    2.9917134215154077e-02 -7.4527320971725706e+00
    3.7089191628679602e-02 -5.8895318231866414e+00
    6.2367385707351987e-02 -1.3459661427967900e+01</input_scale>
  <output_scale>
    1.4947368421052633e+02 260. 1.0368421052631579e+02
    2.1149999999999997e+02 3.1052631578947370e+01 1.6350000000000000e+02
    7.3684210526315796e+00 4.0000000000000007e+01</output_scale>
  <inv_output_scale>
    6.6901408450704223e-03 -1.7394366197183098e+00
    9.6446700507614204e-03 -2.0398477157360402e+00
    3.2203389830508473e-02 -5.2652542372881355e+00
    1.3571428571428570e-01 -5.4285714285714288e+00</inv_output_scale>
  <weights>
    <_>
      -5.1655541590591525e-01 -3.7246132772543467e-01
      -2.5848613179371727e-01 -3.7403361038705579e-01
      -5.5204506331456904e-01 4.3287890407839202e-01
      2.1347153442449085e-01 3.2902458782908384e-01
      -1.2897859735459857e-01 -9.5791603034710140e-02
      1.5746571646225802e-01 -2.7125968574400594e-01
      3.5423632066316640e-01 -3.6845540399141380e-01
      -2.4280623252698710e-02 -4.1405045336563256e-01
      -3.9905735138687826e-01 -2.7551320013960739e-01
      5.9818584600905111e-01 4.9700165330320001e-01
      -3.4301266132502223e-01 3.5792002755780078e-01
      3.0951463023826703e-01 -2.7260075486119173e-01
      -3.4069822337642258e-01 -2.6561090082629341e-01
      -2.5506634536700695e-01 -4.2537287378907013e-01
      1.1153226174699267e-01 1.1479222480049155e-01
      7.9594405139191471e-01 1.2943053326896517e-01
      2.8945155842435183e-01 3.5134187754286911e-01
      -4.4001618535108555e-01 3.7630781789158790e-01
      -5.0996568034813006e-01 7.4347596848991837e-01
      1.7747427780663766e-01 9.8832021401786385e-01</_>
    <_>
      -8.8295816643505198e-01 6.0697167800932250e-01
      -7.3594829179981469e-01 -6.8161193619678462e-01
      -7.4518964335704574e-01 -1.7957141907068483e-01
      8.1343591742921703e-02 -5.2284519216119707e-01
      3.3731222672358563e-01 3.7142325847509644e-01
      -5.0801457638012659e-01 9.6447707504079883e-02
      6.1113785225149286e-01 -9.6447464045508124e-01
      -7.7306818689561296e-01 3.0324913853341090e-01
      -9.2767970764814001e-01 -2.5020496890463656e-01
      9.0133020351814563e-01 -2.7446457497602833e-01
      1.0852914683137667e+00 -2.8599395494382307e-01
      -7.4512897739370221e-01 2.4886925854602074e-01
      -1.7757036948352545e-01 -7.1455718942249669e-01
      5.7479773314331484e-01 2.6199502035302019e-01
      -6.4082625017737405e-01 6.9554257006169484e-01
      -9.4814723819191826e-01 -1.1246207485212070e+00
      3.0272789736708622e-01 1.9252733130692640e-01
      -6.3076054527029113e-01 -6.3329946740420662e-01
      6.5487916227867837e-01 6.5711121273345874e-01
      -1.0232412184142050e+00 -5.0528072791552414e-01
      7.1217296753680687e-02 -3.5374145853854416e-01
      -3.6022910444283068e-01 -1.2008399669405603e+00</_></weights></opencv_ml_ann_mlp>
</opencv_storage>
