<?xml version="1.0"?>
<opencv_storage>
<opencv_ml_ann_mlp>
  <format>3</format>
  <layer_sizes>
    3 12 4</layer_sizes>
  <activation_function>SIGMOID_SYM</activation_function>
  <f_param1>1.</f_param1>
  <f_param2>1.</f_param2>
  <min_val>-9.4999999999999996e-01</min_val>
  <max_val>9.4999999999999996e-01</max_val>
  <min_val1>-9.7999999999999998e-01</min_val1>
  <max_val1>9.7999999999999998e-01</max_val1>
  <training_params>
    <train_method>BACKPROP</train_method>
    <dw_scale>1.0000000000000000e-03</dw_scale>
    <moment_scale>1.0000000000000001e-01</moment_scale>
    <term_criteria>
      <epsilon>1.0000000000000000e-04</epsilon>
      <iterations>10000</iterations></term_criteria></training_params>
  <input_scale>
    1.3117803875177064e-02 -2.2939759526715888e+00
    2.2812032670000416e-02 -2.7237567007980497e+00
    3.3897526064083819e-02 -8.6065818676708812e+00</input_scale>
  <output_scale>
    1.6263157894736844e+02 2.1350000000000003e+02 9.2105263157894740e+01
    1.7350000000000000e+02 3.6842105263157897e+01 169.
    8.9473684210526319e+00 4.1500000000000000e+01</output_scale>
  <inv_output_scale>
    6.1488673139158574e-03 -1.3127831715210356e+00
    1.0857142857142857e-02 -1.8837142857142857e+00
    2.7142857142857142e-02 -4.5871428571428572e+00
    1.1176470588235293e-01 -4.6382352941176466e+00</inv_output_scale>
  <weights>
    <_>
      -1.2966819135164628e-01 1.0128229733383161e-01
      -7.7996633856747588e-01 2.4326948879394233e-01
      -6.4431231679418122e-01 5.3630152630633288e-01
      -2.7296110244469922e-02 1.6467757779420839e-01
      -1.8876224349904522e-01 -5.7080263439298295e-01
      2.2748655122342354e-01 -4.8432701225961727e-01
      4.3386811917064544e-01 -3.6254739935310087e-01
      2.7114136687303719e-01 -6.7940378352252778e-02
      -7.2909870404011157e-01 1.9597381037106287e-01
      -4.8043639977833563e-01 3.0526466668624191e-01
      4.4667213675993317e-01 4.4102330632125386e-01
      -5.3846435236654921e-01 7.8581379871067114e-01
      -5.4050776057004224e-01 1.6417798201085371e-01
      3.5429726492565866e-01 -6.2129248068862686e-01
      -2.5201198985248635e-01 -3.8245503054357732e-01
      -5.8576091097951122e-01 -5.2323948565772693e-01
      -5.6377473015875555e-02 4.6419275792201870e-02
      1.9213045401599363e-01 -8.1629992480863889e-03
      5.9320471537118891e-01 -6.9760821793122235e-02
      3.5678347714392676e-02 2.9610422817958210e-01
      -3.7322181247623626e-01 4.2954867490484228e-01
      3.6190595283793059e-01 6.3375833264586434e-01
      -2.1803663351021949e-01 4.7283523240854441e-01
      -1.8129361995569104e-01 2.6533746743534459e-01</_>
    <_>
      1.5534720164074556e-01 -2.2182465751218713e-01
      -8.6554443671000003e-01 -4.9828434979015107e-01
      3.5775840717430063e-01 -4.7688929326129542e-01
      2.9294409350991518e-01 -2.6286457947815445e-01
      -7.5117035831591772e-01 4.3112968914976380e-01
      3.8112095746143526e-01 -2.2565013332377962e-01
      4.2952800844008876e-01 -4.5582939871119194e-01
      -5.0129260385484764e-01 -7.2669457177686403e-01
      -6.3692692115232041e-01 -7.0338269323196034e-01
      6.5971255844307253e-01 4.9061778554773905e-01
      6.7803438009623573e-01 7.1102760180209024e-01
      -1.1733420748603800e-03 -8.7790475493223041e-01
      -9.6913823392420562e-01 -8.1162485582513144e-01
      -9.2405229323721982e-01 -3.6209944402100669e-01
      -1.0023829212323772e-01 4.5091603224923227e-01
      -9.5508919396318603e-01 -6.2832537680616529e-01
      -3.4599043935168899e-01 -5.5154224763093662e-01
      -3.0641315725569457e-01 -5.3206357268990589e-01
      -9.4849525665394463e-01 -2.4538553679111816e-01
      -6.1449831258941878e-01 -6.5210550831317626e-01
      4.7233172922766470e-01 -8.7239236267017728e-01
      -4.0470971886087848e-01 7.4944642906424408e-01
      -1.3389941307661718e-02 1.0927359729256640e+00
      -6.2282530429492977e-01 2.5585844984465389e-01
      2.5733247220746269e-01 3.7185149658134331e-01
      -2.7440515433804272e-02 -2.4735534444017154e-01</_></weights></opencv_ml_ann_mlp>
</opencv_storage>
