<?xml version="1.0"?>
<opencv_storage>
<my_nn type_id="opencv-ml-ann-mlp">
  <layer_sizes type_id="opencv-matrix">
    <rows>1</rows>
    <cols>3</cols>
    <dt>i</dt>
    <data>
      3 15 4</data></layer_sizes>
  <activation_function>SIGMOID_SYM</activation_function>
  <f_param1>6.6666666666666663e-01</f_param1>
  <f_param2>1.7159000000000000e+00</f_param2>
  <min_val>-9.4999999999999996e-01</min_val>
  <max_val>9.4999999999999996e-01</max_val>
  <min_val1>-9.7999999999999998e-01</min_val1>
  <max_val1>9.7999999999999998e-01</max_val1>
  <training_params>
    <train_method>BACKPROP</train_method>
    <dw_scale>1.0000000000000001e-01</dw_scale>
    <moment_scale>1.0000000000000001e-01</moment_scale>
    <term_criteria><epsilon>9.9999997764825821e-03</epsilon>
      <iterations>1000</iterations></term_criteria></training_params>
  <input_scale>
    2.1051306619128744e-02 -5.3332675653923474e+00
    2.2607069711044283e-02 -2.6192898768288382e+00
    2.4900935883340233e-02 -7.2917602092845852e+00</input_scale>
  <output_scale>
    2.1052631578947370e+02 2.1600000000000003e+02 1.5105263157894737e+02
    2.9950000000000000e+02 60. 94. 4.9473684210526322e+01 78.</output_scale>
  <inv_output_scale>
    4.7499999999999999e-03 -1.0260000000000000e+00
    6.6202090592334490e-03 -1.9827526132404181e+00
    1.6666666666666666e-02 -1.5666666666666667e+00
    2.0212765957446806e-02 -1.5765957446808510e+00</inv_output_scale>
  <weights>
    <_>
      -3.7839503955810927e-01 5.3263686618499828e-01
      -3.6387616680154705e-01 5.3095908482550702e-01
      -7.5078330510915309e-02 6.0423592145080307e-01
      5.6256219555612563e-01 3.1673071935339714e-01
      -5.0405705179219162e-01 -6.8675972546080721e-01
      -2.4443072672134722e-01 -8.0858737612134612e-01
      -5.3254284406702834e-01 -1.7479310612821342e-01
      9.3099736898654417e-02 -2.9072545162636826e-03
      7.5008243667334806e-01 1.8070840431933050e-01
      4.8252976078098325e-01 -1.0181233136416188e+00
      -1.3326251621452567e-01 6.6478478208587299e-01
      5.1919470067275941e-01 5.1387621109279102e-01
      -8.9143047756759897e-01 -3.3549481441956419e-01
      -8.3416337745634161e-01 -1.1451743887859502e-01
      -4.6064186764018400e-01 -5.8568308558075144e-01
      2.2133893815368965e-02 -1.1617059357944585e-01
      5.4391546076997366e-01 -8.0550388358994396e-01
      2.7971410775767530e-01 1.1331185572882073e-01
      6.7013547037687871e-01 -2.0584483924244720e-01
      -4.1032049192467934e-01 9.1134000565591372e-02
      7.1471203038737396e-01 2.4569471382600036e-01
      -6.2802176263345200e-01 1.9245714884743445e-01
      3.8270728216639888e-01 1.7248446072660348e-01
      -4.7722789759941203e-01 7.7608074280557737e-01
      -3.6507269634155298e-01 9.6187826527393427e-01
      -1.7944569395055560e-01 7.7689301542620687e-02
      -5.8221697737246447e-01 -2.6748823034421265e-01
      -6.6601735939085360e-02 -1.1630981879723397e-01
      6.2509970294963788e-02 -6.8014405562785984e-01
      1.1615224487038200e+00 3.2288323566091715e-01</_>
    <_>
      -4.7690741701096995e-01 -3.2500899983109466e-01
      -4.1217982504263778e-01 5.7991420920957182e-01
      -6.0515375003850902e-01 8.5507600228160938e-02
      3.9668912957147612e-01 3.7503043081604637e-01
      -2.4479164995678770e-02 3.3634050053559689e-01
      -9.0010181400912992e-02 9.6844799735091835e-01
      2.3462633714695660e-02 -8.7515197729350691e-01
      -7.8922388156584511e-01 -1.3332741716194604e-01
      2.4995897569974815e-01 -8.2974439136467204e-01
      1.1542577679170950e-02 -2.7071888734486949e-01
      -5.9603725262826768e-01 -2.4479204063709162e-01
      -4.8807243840903630e-01 7.3868875074109697e-01
      7.8678043360947802e-01 1.8641467599534950e-01
      3.0282088365004833e-01 -9.2299352717194263e-02
      -4.6811242770799050e-01 -2.4916439153650294e-01
      -3.8937541265183673e-01 -1.2754004720979067e-01
      -5.6798093307490427e-01 -9.1256662956036771e-01
      -3.0579617154467320e-01 -4.5656449940685445e-01
      -3.7123187563753340e-01 1.3517520081573725e-01
      7.7882039285163340e-01 -9.4500263693469355e-01
      -5.7632063975993408e-01 -1.1228925921115657e-01
      4.2639605148627441e-01 3.6964678303109810e-01
      -7.7344687357105013e-01 -3.6721752191824580e-01
      -7.1230094044162351e-01 4.6542871683669140e-01
      3.0203437738235767e-01 6.7409231865227259e-01
      -5.4163546723586298e-01 6.3675295941227575e-02
      7.8868852007483292e-01 -8.4150784795225331e-01
      -8.3634619348526151e-01 6.1972780123037807e-01
      9.9523528199883318e-02 -4.7774739824560025e-01
      -3.2533264798956063e-01 3.7411504960169227e-02
      1.9388704535216530e-01 1.8750503290556272e-01
      6.7925223579555061e-01 -2.4159553746086046e-01</_></weights></my_nn>
</opencv_storage>
